<?xml version="1.0"?>
<opencv_storage>
<cascade>
  <stageType>BOOST</stageType>
  <featureType>HAAR</featureType>
  <height>40</height>
  <width>80</width>
  <stageParams>
    <boostType>GAB</boostType>
    <minHitRate>9.9900001287460327e-01</minHitRate>
    <maxFalseAlarm>5.0000000000000000e-01</maxFalseAlarm>
    <weightTrimRate>9.4999999999999996e-01</weightTrimRate>
    <maxDepth>1</maxDepth>
    <maxWeakCount>100</maxWeakCount></stageParams>
  <featureParams>
    <maxCatCount>0</maxCatCount>
    <featSize>1</featSize>
    <mode>ALL</mode></featureParams>
  <stageNum>4</stageNum>
  <stages>
    <!-- stage 0 -->
    <_>
      <maxWeakCount>2</maxWeakCount>
      <stageThreshold>-1.0503591969609261e-02</stageThreshold>
      <weakClassifiers>
        <_>
          <internalNodes>
            0 -1 4 -1.2207629159092903e-02</internalNodes>
          <leafValues>
            9.9401199817657471e-01 -9.9665552377700806e-01</leafValues></_>
        <_>
          <internalNodes>
            0 -1 3 -9.0618580579757690e-03</internalNodes>
          <leafValues>
            9.8615193367004395e-01 -9.8374897241592407e-01</leafValues></_></weakClassifiers></_>
    <!-- stage 1 -->
    <_>
      <maxWeakCount>2</maxWeakCount>
      <stageThreshold>-1.6350887715816498e-01</stageThreshold>
      <weakClassifiers>
        <_>
          <internalNodes>
            0 -1 0 2.5595497339963913e-02</internalNodes>
          <leafValues>
            -8.7162160873413086e-01 9.0873014926910400e-01</leafValues></_>
        <_>
          <internalNodes>
            0 -1 9 -1.5886301174759865e-02</internalNodes>
          <leafValues>
            7.0811271667480469e-01 -9.5540916919708252e-01</leafValues></_></weakClassifiers></_>
    <!-- stage 2 -->
    <_>
      <maxWeakCount>2</maxWeakCount>
      <stageThreshold>-2.6044616103172302e-01</stageThreshold>
      <weakClassifiers>
        <_>
          <internalNodes>
            0 -1 2 3.4098587930202484e-02</internalNodes>
          <leafValues>
            -8.3187389373779297e-01 8.5034012794494629e-01</leafValues></_>
        <_>
          <internalNodes>
            0 -1 7 -3.9218681195052341e-05</internalNodes>
          <leafValues>
            -9.9045062065124512e-01 5.7142776250839233e-01</leafValues></_></weakClassifiers></_>
    <!-- stage 3 -->
    <_>
      <maxWeakCount>4</maxWeakCount>
      <stageThreshold>-2.8782135248184204e-01</stageThreshold>
      <weakClassifiers>
        <_>
          <internalNodes>
            0 -1 6 -9.1682764468714595e-04</internalNodes>
          <leafValues>
            8.1481480598449707e-01 -6.2420380115509033e-01</leafValues></_>
        <_>
          <internalNodes>
            0 -1 1 2.1064739674329758e-02</internalNodes>
          <leafValues>
            -8.4088575839996338e-01 6.7074763774871826e-01</leafValues></_>
        <_>
          <internalNodes>
            0 -1 8 6.1759310774505138e-03</internalNodes>
          <leafValues>
            -6.1342495679855347e-01 7.2029161453247070e-01</leafValues></_>
        <_>
          <internalNodes>
            0 -1 5 -9.7992271184921265e-04</internalNodes>
          <leafValues>
            4.5697659254074097e-01 -9.7236603498458862e-01</leafValues></_></weakClassifiers></_></stages>
  <features>
    <_>
      <rects>
        <_>
          20 17 24 7 -1.</_>
        <_>
          26 17 12 7 2.</_></rects>
      <tilted>0</tilted></_>
    <_>
      <rects>
        <_>
          25 7 19 10 -1.</_>
        <_>
          25 7 19 5 2.</_></rects>
      <tilted>1</tilted></_>
    <_>
      <rects>
        <_>
          29 11 12 12 -1.</_>
        <_>
          29 11 12 6 2.</_></rects>
      <tilted>1</tilted></_>
    <_>
      <rects>
        <_>
          34 16 15 5 -1.</_>
        <_>
          39 16 5 5 3.</_></rects>
      <tilted>0</tilted></_>
    <_>
      <rects>
        <_>
          34 16 10 8 -1.</_>
        <_>
          39 16 5 8 2.</_></rects>
      <tilted>0</tilted></_>
    <_>
      <rects>
        <_>
          37 18 6 4 -1.</_>
        <_>
          39 18 2 4 3.</_></rects>
      <tilted>0</tilted></_>
    <_>
      <rects>
        <_>
          37 19 3 3 -1.</_>
        <_>
          38 20 1 1 9.</_></rects>
      <tilted>0</tilted></_>
    <_>
      <rects>
        <_>
          39 18 4 4 -1.</_>
        <_>
          40 18 2 4 2.</_></rects>
      <tilted>0</tilted></_>
    <_>
      <rects>
        <_>
          45 20 8 5 -1.</_>
        <_>
          47 22 4 5 2.</_></rects>
      <tilted>1</tilted></_>
    <_>
      <rects>
        <_>
          46 5 12 13 -1.</_>
        <_>
          49 8 6 13 2.</_></rects>
      <tilted>1</tilted></_></features></cascade>
</opencv_storage>
