<?xml version="1.0"?>
<opencv_storage>
<cascade>
  <stageType>BOOST</stageType>
  <featureType>HAAR</featureType>
  <height>40</height>
  <width>80</width>
  <stageParams>
    <boostType>GAB</boostType>
    <minHitRate>9.9900001287460327e-01</minHitRate>
    <maxFalseAlarm>5.0000000000000000e-01</maxFalseAlarm>
    <weightTrimRate>9.4999999999999996e-01</weightTrimRate>
    <maxDepth>1</maxDepth>
    <maxWeakCount>100</maxWeakCount></stageParams>
  <featureParams>
    <maxCatCount>0</maxCatCount>
    <featSize>1</featSize>
    <mode>ALL</mode></featureParams>
  <stageNum>20</stageNum>
  <stages>
    <!-- stage 0 -->
    <_>
      <maxWeakCount>2</maxWeakCount>
      <stageThreshold>-9.1223433613777161e-02</stageThreshold>
      <weakClassifiers>
        <_>
          <internalNodes>
            0 -1 48 -4.3169194832444191e-03</internalNodes>
          <leafValues>
            9.5280236005783081e-01 -9.7598630189895630e-01</leafValues></_>
        <_>
          <internalNodes>
            0 -1 69 4.2245788499712944e-03</internalNodes>
          <leafValues>
            -9.2442893981933594e-01 8.8476282358169556e-01</leafValues></_></weakClassifiers></_>
    <!-- stage 1 -->
    <_>
      <maxWeakCount>2</maxWeakCount>
      <stageThreshold>-1.5135794878005981e-01</stageThreshold>
      <weakClassifiers>
        <_>
          <internalNodes>
            0 -1 47 -6.0924561694264412e-03</internalNodes>
          <leafValues>
            8.8480633497238159e-01 -8.2799327373504639e-01</leafValues></_>
        <_>
          <internalNodes>
            0 -1 18 -1.4458110556006432e-02</internalNodes>
          <leafValues>
            6.7663532495498657e-01 -9.5679658651351929e-01</leafValues></_></weakClassifiers></_>
    <!-- stage 2 -->
    <_>
      <maxWeakCount>4</maxWeakCount>
      <stageThreshold>-7.9429942369461060e-01</stageThreshold>
      <weakClassifiers>
        <_>
          <internalNodes>
            0 -1 36 2.7617696672677994e-02</internalNodes>
          <leafValues>
            -7.8714859485626221e-01 7.1869325637817383e-01</leafValues></_>
        <_>
          <internalNodes>
            0 -1 33 3.2304183114320040e-03</internalNodes>
          <leafValues>
            -8.7479120492935181e-01 4.8659420013427734e-01</leafValues></_>
        <_>
          <internalNodes>
            0 -1 68 3.9762230589985847e-03</internalNodes>
          <leafValues>
            -9.1324126720428467e-01 3.8608452677726746e-01</leafValues></_>
        <_>
          <internalNodes>
            0 -1 129 -9.5289172604680061e-03</internalNodes>
          <leafValues>
            4.8155584931373596e-01 -6.7853760719299316e-01</leafValues></_></weakClassifiers></_>
    <!-- stage 3 -->
    <_>
      <maxWeakCount>4</maxWeakCount>
      <stageThreshold>-6.9085872173309326e-01</stageThreshold>
      <weakClassifiers>
        <_>
          <internalNodes>
            0 -1 56 -3.6434475332498550e-03</internalNodes>
          <leafValues>
            6.6294068098068237e-01 -8.4897023439407349e-01</leafValues></_>
        <_>
          <internalNodes>
            0 -1 77 -6.5503634687047452e-05</internalNodes>
          <leafValues>
            -9.7352403402328491e-01 4.6685254573822021e-01</leafValues></_>
        <_>
          <internalNodes>
            0 -1 15 -7.3608219623565674e-02</internalNodes>
          <leafValues>
            6.3488155603408813e-01 -6.8554365634918213e-01</leafValues></_>
        <_>
          <internalNodes>
            0 -1 25 -6.5958816558122635e-03</internalNodes>
          <leafValues>
            3.7680262327194214e-01 -9.7501170635223389e-01</leafValues></_></weakClassifiers></_>
    <!-- stage 4 -->
    <_>
      <maxWeakCount>5</maxWeakCount>
      <stageThreshold>-1.1331027746200562e+00</stageThreshold>
      <weakClassifiers>
        <_>
          <internalNodes>
            0 -1 37 1.1937622912228107e-02</internalNodes>
          <leafValues>
            -8.5365855693817139e-01 6.3025212287902832e-01</leafValues></_>
        <_>
          <internalNodes>
            0 -1 91 1.7657703210716136e-06</internalNodes>
          <leafValues>
            -8.8993132114410400e-01 4.0192201733589172e-01</leafValues></_>
        <_>
          <internalNodes>
            0 -1 124 4.7991871833801270e-03</internalNodes>
          <leafValues>
            -5.5506408214569092e-01 6.2779104709625244e-01</leafValues></_>
        <_>
          <internalNodes>
            0 -1 19 -6.6097462549805641e-03</internalNodes>
          <leafValues>
            3.9987143874168396e-01 -7.3565584421157837e-01</leafValues></_>
        <_>
          <internalNodes>
            0 -1 26 2.2609986364841461e-02</internalNodes>
          <leafValues>
            -4.2909142374992371e-01 7.6567971706390381e-01</leafValues></_></weakClassifiers></_>
    <!-- stage 5 -->
    <_>
      <maxWeakCount>8</maxWeakCount>
      <stageThreshold>-1.3765931129455566e+00</stageThreshold>
      <weakClassifiers>
        <_>
          <internalNodes>
            0 -1 74 -1.1009296576958150e-04</internalNodes>
          <leafValues>
            -9.3174064159393311e-01 5.1491963863372803e-01</leafValues></_>
        <_>
          <internalNodes>
            0 -1 7 -1.2590682506561279e-01</internalNodes>
          <leafValues>
            6.4807194471359253e-01 -5.0966757535934448e-01</leafValues></_>
        <_>
          <internalNodes>
            0 -1 28 5.9565203264355659e-03</internalNodes>
          <leafValues>
            -6.9092887639999390e-01 4.6029356122016907e-01</leafValues></_>
        <_>
          <internalNodes>
            0 -1 20 -1.2837450951337814e-02</internalNodes>
          <leafValues>
            3.1885445117950439e-01 -9.1006565093994141e-01</leafValues></_>
        <_>
          <internalNodes>
            0 -1 131 -4.3295015348121524e-04</internalNodes>
          <leafValues>
            3.7977772951126099e-01 -6.8548697233200073e-01</leafValues></_>
        <_>
          <internalNodes>
            0 -1 75 9.2192058218643069e-05</internalNodes>
          <leafValues>
            2.8737679123878479e-01 -8.1592011451721191e-01</leafValues></_>
        <_>
          <internalNodes>
            0 -1 78 -8.6741973063908517e-05</internalNodes>
          <leafValues>
            -9.5416063070297241e-01 2.2737303376197815e-01</leafValues></_>
        <_>
          <internalNodes>
            0 -1 50 -7.9220179468393326e-03</internalNodes>
          <leafValues>
            3.4196087718009949e-01 -7.3612672090530396e-01</leafValues></_></weakClassifiers></_>
    <!-- stage 6 -->
    <_>
      <maxWeakCount>8</maxWeakCount>
      <stageThreshold>-1.5794408321380615e+00</stageThreshold>
      <weakClassifiers>
        <_>
          <internalNodes>
            0 -1 71 1.3335928088054061e-04</internalNodes>
          <leafValues>
            5.0572079420089722e-01 -9.1003459692001343e-01</leafValues></_>
        <_>
          <internalNodes>
            0 -1 130 -9.4797217752784491e-04</internalNodes>
          <leafValues>
            4.9810877442359924e-01 -6.5534406900405884e-01</leafValues></_>
        <_>
          <internalNodes>
            0 -1 84 -1.7543468857184052e-04</internalNodes>
          <leafValues>
            4.1698807477951050e-01 -7.8430807590484619e-01</leafValues></_>
        <_>
          <internalNodes>
            0 -1 55 -7.5059337541460991e-04</internalNodes>
          <leafValues>
            2.8042009472846985e-01 -8.8884586095809937e-01</leafValues></_>
        <_>
          <internalNodes>
            0 -1 76 -4.7011177230160683e-05</internalNodes>
          <leafValues>
            -9.4403165578842163e-01 2.0504206418991089e-01</leafValues></_>
        <_>
          <internalNodes>
            0 -1 109 8.8786762207746506e-03</internalNodes>
          <leafValues>
            -5.5008143186569214e-01 4.7476604580879211e-01</leafValues></_>
        <_>
          <internalNodes>
            0 -1 92 -8.1845762906596065e-05</internalNodes>
          <leafValues>
            -7.9009240865707397e-01 3.3259651064872742e-01</leafValues></_>
        <_>
          <internalNodes>
            0 -1 70 2.6944116689264774e-03</internalNodes>
          <leafValues>
            -8.7092322111129761e-01 2.5577917695045471e-01</leafValues></_></weakClassifiers></_>
    <!-- stage 7 -->
    <_>
      <maxWeakCount>8</maxWeakCount>
      <stageThreshold>-1.3714193105697632e+00</stageThreshold>
      <weakClassifiers>
        <_>
          <internalNodes>
            0 -1 128 -1.0455350857228041e-03</internalNodes>
          <leafValues>
            6.4798426628112793e-01 -4.4425386190414429e-01</leafValues></_>
        <_>
          <internalNodes>
            0 -1 93 -9.1565409093163908e-05</internalNodes>
          <leafValues>
            -7.4955415725708008e-01 4.0260171890258789e-01</leafValues></_>
        <_>
          <internalNodes>
            0 -1 45 -1.5932666137814522e-02</internalNodes>
          <leafValues>
            -8.8506799936294556e-01 2.8080010414123535e-01</leafValues></_>
        <_>
          <internalNodes>
            0 -1 44 -7.2829048149287701e-03</internalNodes>
          <leafValues>
            3.7101736664772034e-01 -7.0871156454086304e-01</leafValues></_>
        <_>
          <internalNodes>
            0 -1 61 1.4078355161473155e-04</internalNodes>
          <leafValues>
            -7.2112447023391724e-01 3.5263186693191528e-01</leafValues></_>
        <_>
          <internalNodes>
            0 -1 94 -1.1532950884429738e-04</internalNodes>
          <leafValues>
            -9.6914237737655640e-01 2.3676045238971710e-01</leafValues></_>
        <_>
          <internalNodes>
            0 -1 136 -4.5300037600100040e-03</internalNodes>
          <leafValues>
            4.3871748447418213e-01 -5.6726735830307007e-01</leafValues></_>
        <_>
          <internalNodes>
            0 -1 81 1.0829290840774775e-04</internalNodes>
          <leafValues>
            2.9594671726226807e-01 -9.1623097658157349e-01</leafValues></_></weakClassifiers></_>
    <!-- stage 8 -->
    <_>
      <maxWeakCount>9</maxWeakCount>
      <stageThreshold>-1.5514268875122070e+00</stageThreshold>
      <weakClassifiers>
        <_>
          <internalNodes>
            0 -1 126 -8.5811037570238113e-04</internalNodes>
          <leafValues>
            6.5834933519363403e-01 -5.1254481077194214e-01</leafValues></_>
        <_>
          <internalNodes>
            0 -1 72 -7.0201858761720359e-05</internalNodes>
          <leafValues>
            -8.9854681491851807e-01 3.5711717605590820e-01</leafValues></_>
        <_>
          <internalNodes>
            0 -1 41 -5.4197581484913826e-03</internalNodes>
          <leafValues>
            3.0925205349922180e-01 -8.7949401140213013e-01</leafValues></_>
        <_>
          <internalNodes>
            0 -1 82 2.1385186119005084e-04</internalNodes>
          <leafValues>
            -7.5025713443756104e-01 2.8035953640937805e-01</leafValues></_>
        <_>
          <internalNodes>
            0 -1 12 -1.1206654831767082e-02</internalNodes>
          <leafValues>
            4.4691571593284607e-01 -5.2248406410217285e-01</leafValues></_>
        <_>
          <internalNodes>
            0 -1 85 -5.5397929827449843e-05</internalNodes>
          <leafValues>
            -9.7392547130584717e-01 2.3425923287868500e-01</leafValues></_>
        <_>
          <internalNodes>
            0 -1 22 1.0590091347694397e-02</internalNodes>
          <leafValues>
            -4.4096332788467407e-01 6.1179506778717041e-01</leafValues></_>
        <_>
          <internalNodes>
            0 -1 11 1.1239148676395416e-02</internalNodes>
          <leafValues>
            -5.5115401744842529e-01 6.1820214986801147e-01</leafValues></_>
        <_>
          <internalNodes>
            0 -1 27 1.9317304249852896e-03</internalNodes>
          <leafValues>
            -4.4114619493484497e-01 5.9701931476593018e-01</leafValues></_></weakClassifiers></_>
    <!-- stage 9 -->
    <_>
      <maxWeakCount>11</maxWeakCount>
      <stageThreshold>-1.2867109775543213e+00</stageThreshold>
      <weakClassifiers>
        <_>
          <internalNodes>
            0 -1 49 -2.4782456457614899e-03</internalNodes>
          <leafValues>
            4.7826087474822998e-01 -7.8546714782714844e-01</leafValues></_>
        <_>
          <internalNodes>
            0 -1 97 -1.5394244110211730e-03</internalNodes>
          <leafValues>
            3.3739137649536133e-01 -7.3023957014083862e-01</leafValues></_>
        <_>
          <internalNodes>
            0 -1 5 2.6860661804676056e-02</internalNodes>
          <leafValues>
            -3.3358508348464966e-01 7.6844149827957153e-01</leafValues></_>
        <_>
          <internalNodes>
            0 -1 83 -1.0527894482947886e-04</internalNodes>
          <leafValues>
            -9.2054241895675659e-01 3.0599322915077209e-01</leafValues></_>
        <_>
          <internalNodes>
            0 -1 59 2.0343067590147257e-03</internalNodes>
          <leafValues>
            -6.7652416229248047e-01 3.2432019710540771e-01</leafValues></_>
        <_>
          <internalNodes>
            0 -1 30 -1.6277119284495711e-03</internalNodes>
          <leafValues>
            2.6635730266571045e-01 -8.8701778650283813e-01</leafValues></_>
        <_>
          <internalNodes>
            0 -1 96 -3.7361773138400167e-05</internalNodes>
          <leafValues>
            -7.8257030248641968e-01 2.7931562066078186e-01</leafValues></_>
        <_>
          <internalNodes>
            0 -1 4 -3.9342142641544342e-02</internalNodes>
          <leafValues>
            7.8786033391952515e-01 -3.5422846674919128e-01</leafValues></_>
        <_>
          <internalNodes>
            0 -1 23 2.4666080716997385e-03</internalNodes>
          <leafValues>
            3.1738340854644775e-01 -7.5543308258056641e-01</leafValues></_>
        <_>
          <internalNodes>
            0 -1 43 1.1910079047083855e-02</internalNodes>
          <leafValues>
            -7.7741664648056030e-01 2.7665179967880249e-01</leafValues></_>
        <_>
          <internalNodes>
            0 -1 51 -5.4834489710628986e-03</internalNodes>
          <leafValues>
            2.1385924518108368e-01 -9.0731596946716309e-01</leafValues></_></weakClassifiers></_>
    <!-- stage 10 -->
    <_>
      <maxWeakCount>7</maxWeakCount>
      <stageThreshold>-9.2044627666473389e-01</stageThreshold>
      <weakClassifiers>
        <_>
          <internalNodes>
            0 -1 24 -7.9811993055045605e-04</internalNodes>
          <leafValues>
            6.5365368127822876e-01 -4.2096504569053650e-01</leafValues></_>
        <_>
          <internalNodes>
            0 -1 62 3.9679314941167831e-03</internalNodes>
          <leafValues>
            -8.8088619709014893e-01 3.4584811329841614e-01</leafValues></_>
        <_>
          <internalNodes>
            0 -1 105 1.2671598233282566e-04</internalNodes>
          <leafValues>
            4.1323330998420715e-01 -7.0972687005996704e-01</leafValues></_>
        <_>
          <internalNodes>
            0 -1 107 -2.9852660372853279e-04</internalNodes>
          <leafValues>
            6.6524869203567505e-01 -4.1614437103271484e-01</leafValues></_>
        <_>
          <internalNodes>
            0 -1 67 -3.3929529599845409e-03</internalNodes>
          <leafValues>
            3.0019295215606689e-01 -9.1368687152862549e-01</leafValues></_>
        <_>
          <internalNodes>
            0 -1 60 -3.9601325988769531e-04</internalNodes>
          <leafValues>
            7.8889900445938110e-01 -3.6409446597099304e-01</leafValues></_>
        <_>
          <internalNodes>
            0 -1 8 -2.9849968850612640e-02</internalNodes>
          <leafValues>
            4.4821757078170776e-01 -5.9365612268447876e-01</leafValues></_></weakClassifiers></_>
    <!-- stage 11 -->
    <_>
      <maxWeakCount>9</maxWeakCount>
      <stageThreshold>-1.3948473930358887e+00</stageThreshold>
      <weakClassifiers>
        <_>
          <internalNodes>
            0 -1 117 -3.9267730899155140e-03</internalNodes>
          <leafValues>
            5.3015875816345215e-01 -7.8823530673980713e-01</leafValues></_>
        <_>
          <internalNodes>
            0 -1 21 1.5020295977592468e-03</internalNodes>
          <leafValues>
            -6.2035113573074341e-01 4.7468134760856628e-01</leafValues></_>
        <_>
          <internalNodes>
            0 -1 99 1.1219781299587339e-04</internalNodes>
          <leafValues>
            3.1860223412513733e-01 -9.6345555782318115e-01</leafValues></_>
        <_>
          <internalNodes>
            0 -1 120 1.8950342200696468e-03</internalNodes>
          <leafValues>
            -7.0984411239624023e-01 4.0515345335006714e-01</leafValues></_>
        <_>
          <internalNodes>
            0 -1 141 8.3167874254286289e-04</internalNodes>
          <leafValues>
            2.9560494422912598e-01 -8.0013269186019897e-01</leafValues></_>
        <_>
          <internalNodes>
            0 -1 14 1.3226857408881187e-03</internalNodes>
          <leafValues>
            -4.6847578883171082e-01 5.8847266435623169e-01</leafValues></_>
        <_>
          <internalNodes>
            0 -1 134 -6.5233493223786354e-03</internalNodes>
          <leafValues>
            6.5011799335479736e-01 -4.2408043146133423e-01</leafValues></_>
        <_>
          <internalNodes>
            0 -1 0 -4.0231453021988273e-04</internalNodes>
          <leafValues>
            -7.8741157054901123e-01 3.5683393478393555e-01</leafValues></_>
        <_>
          <internalNodes>
            0 -1 110 -8.5971504449844360e-03</internalNodes>
          <leafValues>
            4.5869609713554382e-01 -6.7329573631286621e-01</leafValues></_></weakClassifiers></_>
    <!-- stage 12 -->
    <_>
      <maxWeakCount>9</maxWeakCount>
      <stageThreshold>-1.6444015502929688e+00</stageThreshold>
      <weakClassifiers>
        <_>
          <internalNodes>
            0 -1 90 1.1152995284646749e-04</internalNodes>
          <leafValues>
            4.9491789937019348e-01 -7.2585672140121460e-01</leafValues></_>
        <_>
          <internalNodes>
            0 -1 58 1.2007441837340593e-03</internalNodes>
          <leafValues>
            -7.4362975358963013e-01 3.8874682784080505e-01</leafValues></_>
        <_>
          <internalNodes>
            0 -1 2 -1.6435925499536097e-04</internalNodes>
          <leafValues>
            -8.5480785369873047e-01 2.9258307814598083e-01</leafValues></_>
        <_>
          <internalNodes>
            0 -1 16 2.4852333590388298e-03</internalNodes>
          <leafValues>
            -6.1828953027725220e-01 4.4978076219558716e-01</leafValues></_>
        <_>
          <internalNodes>
            0 -1 86 5.5103242630138993e-05</internalNodes>
          <leafValues>
            4.0240734815597534e-01 -5.8527874946594238e-01</leafValues></_>
        <_>
          <internalNodes>
            0 -1 98 7.9565841588191688e-05</internalNodes>
          <leafValues>
            2.4318441748619080e-01 -9.0520370006561279e-01</leafValues></_>
        <_>
          <internalNodes>
            0 -1 118 -3.2080322853289545e-04</internalNodes>
          <leafValues>
            5.4234707355499268e-01 -4.8134210705757141e-01</leafValues></_>
        <_>
          <internalNodes>
            0 -1 122 -1.7357985489070415e-03</internalNodes>
          <leafValues>
            7.2215664386749268e-01 -3.9363679289817810e-01</leafValues></_>
        <_>
          <internalNodes>
            0 -1 77 -5.5292963224928826e-05</internalNodes>
          <leafValues>
            -9.3529313802719116e-01 2.9979434609413147e-01</leafValues></_></weakClassifiers></_>
    <!-- stage 13 -->
    <_>
      <maxWeakCount>9</maxWeakCount>
      <stageThreshold>-1.0845402479171753e+00</stageThreshold>
      <weakClassifiers>
        <_>
          <internalNodes>
            0 -1 84 -1.4382526569534093e-04</internalNodes>
          <leafValues>
            5.3744858503341675e-01 -6.5714287757873535e-01</leafValues></_>
        <_>
          <internalNodes>
            0 -1 135 -2.6218804996460676e-03</internalNodes>
          <leafValues>
            5.2556461095809937e-01 -5.3880465030670166e-01</leafValues></_>
        <_>
          <internalNodes>
            0 -1 73 -7.9018842370714992e-05</internalNodes>
          <leafValues>
            -8.6668717861175537e-01 3.1523928046226501e-01</leafValues></_>
        <_>
          <internalNodes>
            0 -1 35 -2.9646074399352074e-03</internalNodes>
          <leafValues>
            2.9078969359397888e-01 -9.2736220359802246e-01</leafValues></_>
        <_>
          <internalNodes>
            0 -1 42 -8.0912671983242035e-03</internalNodes>
          <leafValues>
            6.5361231565475464e-01 -4.7502568364143372e-01</leafValues></_>
        <_>
          <internalNodes>
            0 -1 102 -4.1145859286189079e-03</internalNodes>
          <leafValues>
            7.9421436786651611e-01 -3.7652352452278137e-01</leafValues></_>
        <_>
          <internalNodes>
            0 -1 113 -4.9474751576781273e-03</internalNodes>
          <leafValues>
            6.8554264307022095e-01 -4.5273527503013611e-01</leafValues></_>
        <_>
          <internalNodes>
            0 -1 32 9.4716910098213702e-05</internalNodes>
          <leafValues>
            4.1587504744529724e-01 -6.9908207654953003e-01</leafValues></_>
        <_>
          <internalNodes>
            0 -1 52 2.3433608002960682e-03</internalNodes>
          <leafValues>
            -6.7145133018493652e-01 4.3743634223937988e-01</leafValues></_></weakClassifiers></_>
    <!-- stage 14 -->
    <_>
      <maxWeakCount>9</maxWeakCount>
      <stageThreshold>-1.1514344215393066e+00</stageThreshold>
      <weakClassifiers>
        <_>
          <internalNodes>
            0 -1 89 -5.1115370297338814e-05</internalNodes>
          <leafValues>
            -7.7987420558929443e-01 5.0546020269393921e-01</leafValues></_>
        <_>
          <internalNodes>
            0 -1 34 1.1670184321701527e-03</internalNodes>
          <leafValues>
            -8.4393739700317383e-01 3.2237565517425537e-01</leafValues></_>
        <_>
          <internalNodes>
            0 -1 17 -1.4697854407131672e-02</internalNodes>
          <leafValues>
            3.1050843000411987e-01 -7.8332269191741943e-01</leafValues></_>
        <_>
          <internalNodes>
            0 -1 66 -2.8627851861529052e-05</internalNodes>
          <leafValues>
            -5.7719439268112183e-01 5.2673667669296265e-01</leafValues></_>
        <_>
          <internalNodes>
            0 -1 9 -1.0613458231091499e-02</internalNodes>
          <leafValues>
            7.4127840995788574e-01 -4.1276425123214722e-01</leafValues></_>
        <_>
          <internalNodes>
            0 -1 148 -1.3382424367591739e-04</internalNodes>
          <leafValues>
            -8.4301280975341797e-01 2.9394614696502686e-01</leafValues></_>
        <_>
          <internalNodes>
            0 -1 137 3.2873488962650299e-03</internalNodes>
          <leafValues>
            3.1576487421989441e-01 -8.2031333446502686e-01</leafValues></_>
        <_>
          <internalNodes>
            0 -1 39 -5.9340777806937695e-04</internalNodes>
          <leafValues>
            7.1442556381225586e-01 -4.1021785140037537e-01</leafValues></_>
        <_>
          <internalNodes>
            0 -1 103 2.2143716923892498e-03</internalNodes>
          <leafValues>
            -3.3300012350082397e-01 8.0977004766464233e-01</leafValues></_></weakClassifiers></_>
    <!-- stage 15 -->
    <_>
      <maxWeakCount>9</maxWeakCount>
      <stageThreshold>-1.0428824424743652e+00</stageThreshold>
      <weakClassifiers>
        <_>
          <internalNodes>
            0 -1 53 3.1245723948813975e-04</internalNodes>
          <leafValues>
            -7.0224720239639282e-01 5.2250802516937256e-01</leafValues></_>
        <_>
          <internalNodes>
            0 -1 100 -1.6551584121771157e-04</internalNodes>
          <leafValues>
            -8.4689408540725708e-01 3.1312441825866699e-01</leafValues></_>
        <_>
          <internalNodes>
            0 -1 57 -3.3993914257735014e-04</internalNodes>
          <leafValues>
            3.2548043131828308e-01 -7.7948480844497681e-01</leafValues></_>
        <_>
          <internalNodes>
            0 -1 65 -3.6848825402557850e-05</internalNodes>
          <leafValues>
            -5.7141602039337158e-01 5.8319634199142456e-01</leafValues></_>
        <_>
          <internalNodes>
            0 -1 13 -7.2439778596162796e-03</internalNodes>
          <leafValues>
            9.0359491109848022e-01 -3.3727371692657471e-01</leafValues></_>
        <_>
          <internalNodes>
            0 -1 10 -5.5331876501441002e-03</internalNodes>
          <leafValues>
            7.3448830842971802e-01 -3.4000107645988464e-01</leafValues></_>
        <_>
          <internalNodes>
            0 -1 54 -7.4105812236666679e-03</internalNodes>
          <leafValues>
            4.2801898717880249e-01 -6.2887305021286011e-01</leafValues></_>
        <_>
          <internalNodes>
            0 -1 145 4.5497179962694645e-04</internalNodes>
          <leafValues>
            3.0246254801750183e-01 -8.0998378992080688e-01</leafValues></_>
        <_>
          <internalNodes>
            0 -1 40 5.7583185844123363e-04</internalNodes>
          <leafValues>
            -4.5562458038330078e-01 6.6365855932235718e-01</leafValues></_></weakClassifiers></_>
    <!-- stage 16 -->
    <_>
      <maxWeakCount>9</maxWeakCount>
      <stageThreshold>-6.4524084329605103e-01</stageThreshold>
      <weakClassifiers>
        <_>
          <internalNodes>
            0 -1 29 -3.2051024027168751e-04</internalNodes>
          <leafValues>
            5.4142260551452637e-01 -6.0987651348114014e-01</leafValues></_>
        <_>
          <internalNodes>
            0 -1 101 8.6268177255988121e-04</internalNodes>
          <leafValues>
            -5.8023643493652344e-01 4.6810373663902283e-01</leafValues></_>
        <_>
          <internalNodes>
            0 -1 146 -4.8876553773880005e-04</internalNodes>
          <leafValues>
            -7.9326599836349487e-01 3.3708980679512024e-01</leafValues></_>
        <_>
          <internalNodes>
            0 -1 132 -5.2435141697060317e-05</internalNodes>
          <leafValues>
            3.5895767807960510e-01 -7.3377007246017456e-01</leafValues></_>
        <_>
          <internalNodes>
            0 -1 140 4.4943336979486048e-04</internalNodes>
          <leafValues>
            2.6305022835731506e-01 -7.9719007015228271e-01</leafValues></_>
        <_>
          <internalNodes>
            0 -1 63 2.5590885430574417e-02</internalNodes>
          <leafValues>
            2.2531048953533173e-01 -9.2553657293319702e-01</leafValues></_>
        <_>
          <internalNodes>
            0 -1 79 5.7580403517931700e-04</internalNodes>
          <leafValues>
            -8.8987869024276733e-01 2.3019498586654663e-01</leafValues></_>
        <_>
          <internalNodes>
            0 -1 106 -5.7260747998952866e-03</internalNodes>
          <leafValues>
            8.3719903230667114e-01 -3.4599375724792480e-01</leafValues></_>
        <_>
          <internalNodes>
            0 -1 138 3.7354584783315659e-03</internalNodes>
          <leafValues>
            -4.4172170758247375e-01 6.5250462293624878e-01</leafValues></_></weakClassifiers></_>
    <!-- stage 17 -->
    <_>
      <maxWeakCount>9</maxWeakCount>
      <stageThreshold>-1.0767073631286621e+00</stageThreshold>
      <weakClassifiers>
        <_>
          <internalNodes>
            0 -1 46 -5.6613157503306866e-03</internalNodes>
          <leafValues>
            4.8450490832328796e-01 -8.7003612518310547e-01</leafValues></_>
        <_>
          <internalNodes>
            0 -1 125 1.5658342745155096e-03</internalNodes>
          <leafValues>
            -4.5391371846199036e-01 6.1742109060287476e-01</leafValues></_>
        <_>
          <internalNodes>
            0 -1 104 -6.0549302725121379e-04</internalNodes>
          <leafValues>
            6.6424185037612915e-01 -4.4647029042243958e-01</leafValues></_>
        <_>
          <internalNodes>
            0 -1 143 3.4118851181119680e-04</internalNodes>
          <leafValues>
            4.1775414347648621e-01 -7.3072230815887451e-01</leafValues></_>
        <_>
          <internalNodes>
            0 -1 119 -8.9891889365389943e-04</internalNodes>
          <leafValues>
            7.9780519008636475e-01 -3.9477622509002686e-01</leafValues></_>
        <_>
          <internalNodes>
            0 -1 95 -4.7836890444159508e-03</internalNodes>
          <leafValues>
            4.7764122486114502e-01 -5.7668924331665039e-01</leafValues></_>
        <_>
          <internalNodes>
            0 -1 1 7.5100964750163257e-05</internalNodes>
          <leafValues>
            3.8010379672050476e-01 -7.4300462007522583e-01</leafValues></_>
        <_>
          <internalNodes>
            0 -1 139 -7.8393742442131042e-03</internalNodes>
          <leafValues>
            6.9578266143798828e-01 -4.0425005555152893e-01</leafValues></_>
        <_>
          <internalNodes>
            0 -1 147 -3.3341255038976669e-04</internalNodes>
          <leafValues>
            -7.9325491189956665e-01 3.4636870026588440e-01</leafValues></_></weakClassifiers></_>
    <!-- stage 18 -->
    <_>
      <maxWeakCount>11</maxWeakCount>
      <stageThreshold>-1.3414314985275269e+00</stageThreshold>
      <weakClassifiers>
        <_>
          <internalNodes>
            0 -1 88 1.5353050082921982e-02</internalNodes>
          <leafValues>
            -8.2389938831329346e-01 5.1638066768646240e-01</leafValues></_>
        <_>
          <internalNodes>
            0 -1 80 1.2138430960476398e-02</internalNodes>
          <leafValues>
            2.9575249552726746e-01 -9.3147045373916626e-01</leafValues></_>
        <_>
          <internalNodes>
            0 -1 121 9.9554215557873249e-04</internalNodes>
          <leafValues>
            2.5896990299224854e-01 -8.1642305850982666e-01</leafValues></_>
        <_>
          <internalNodes>
            0 -1 6 -7.8141965786926448e-05</internalNodes>
          <leafValues>
            -6.7891317605972290e-01 3.6021986603736877e-01</leafValues></_>
        <_>
          <internalNodes>
            0 -1 108 -5.0316879060119390e-04</internalNodes>
          <leafValues>
            7.2084790468215942e-01 -3.8360023498535156e-01</leafValues></_>
        <_>
          <internalNodes>
            0 -1 116 -3.4080655314028263e-04</internalNodes>
          <leafValues>
            -5.8893096446990967e-01 4.2472845315933228e-01</leafValues></_>
        <_>
          <internalNodes>
            0 -1 38 9.3603804707527161e-03</internalNodes>
          <leafValues>
            -9.4440662860870361e-01 2.1236100792884827e-01</leafValues></_>
        <_>
          <internalNodes>
            0 -1 133 8.8261731434613466e-04</internalNodes>
          <leafValues>
            -3.4925401210784912e-01 7.9506617784500122e-01</leafValues></_>
        <_>
          <internalNodes>
            0 -1 112 -1.1959660798311234e-02</internalNodes>
          <leafValues>
            9.0079790353775024e-01 -2.4392361938953400e-01</leafValues></_>
        <_>
          <internalNodes>
            0 -1 64 8.8146720081567764e-03</internalNodes>
          <leafValues>
            -3.7371850013732910e-01 6.8885993957519531e-01</leafValues></_>
        <_>
          <internalNodes>
            0 -1 3 1.0081828804686666e-04</internalNodes>
          <leafValues>
            2.9459193348884583e-01 -8.1090003252029419e-01</leafValues></_></weakClassifiers></_>
    <!-- stage 19 -->
    <_>
      <maxWeakCount>9</maxWeakCount>
      <stageThreshold>-1.0807248353958130e+00</stageThreshold>
      <weakClassifiers>
        <_>
          <internalNodes>
            0 -1 87 -5.2503266488201916e-05</internalNodes>
          <leafValues>
            4.4918999075889587e-01 -8.6776858568191528e-01</leafValues></_>
        <_>
          <internalNodes>
            0 -1 31 1.6953948885202408e-02</internalNodes>
          <leafValues>
            -4.5690053701400757e-01 6.1231899261474609e-01</leafValues></_>
        <_>
          <internalNodes>
            0 -1 115 1.6229765024036169e-03</internalNodes>
          <leafValues>
            -2.3189137876033783e-01 9.6981859207153320e-01</leafValues></_>
        <_>
          <internalNodes>
            0 -1 142 1.8558731244411319e-04</internalNodes>
          <leafValues>
            3.6641538143157959e-01 -6.4859777688980103e-01</leafValues></_>
        <_>
          <internalNodes>
            0 -1 111 -3.4419833682477474e-03</internalNodes>
          <leafValues>
            3.5992497205734253e-01 -6.9915974140167236e-01</leafValues></_>
        <_>
          <internalNodes>
            0 -1 144 1.8215598538517952e-04</internalNodes>
          <leafValues>
            3.6986860632896423e-01 -6.6308134794235229e-01</leafValues></_>
        <_>
          <internalNodes>
            0 -1 114 -3.4523620270192623e-03</internalNodes>
          <leafValues>
            9.4759768247604370e-01 -2.8693017363548279e-01</leafValues></_>
        <_>
          <internalNodes>
            0 -1 127 -2.8546259272843599e-03</internalNodes>
          <leafValues>
            7.3083496093750000e-01 -3.1013131141662598e-01</leafValues></_>
        <_>
          <internalNodes>
            0 -1 123 -1.3760816305875778e-02</internalNodes>
          <leafValues>
            8.6295419931411743e-01 -2.8118568658828735e-01</leafValues></_></weakClassifiers></_></stages>
  <features>
    <_>
      <rects>
        <_>
          0 2 4 9 -1.</_>
        <_>
          2 2 2 9 2.</_></rects>
      <tilted>0</tilted></_>
    <_>
      <rects>
        <_>
          0 3 3 4 -1.</_>
        <_>
          0 4 3 2 2.</_></rects>
      <tilted>0</tilted></_>
    <_>
      <rects>
        <_>
          1 18 4 3 -1.</_>
        <_>
          2 18 2 3 2.</_></rects>
      <tilted>0</tilted></_>
    <_>
      <rects>
        <_>
          1 34 4 2 -1.</_>
        <_>
          1 35 4 1 2.</_></rects>
      <tilted>0</tilted></_>
    <_>
      <rects>
        <_>
          3 23 32 11 -1.</_>
        <_>
          19 23 16 11 2.</_></rects>
      <tilted>0</tilted></_>
    <_>
      <rects>
        <_>
          4 3 27 20 -1.</_>
        <_>
          13 3 9 20 3.</_></rects>
      <tilted>0</tilted></_>
    <_>
      <rects>
        <_>
          4 17 2 7 -1.</_>
        <_>
          5 17 1 7 2.</_></rects>
      <tilted>0</tilted></_>
    <_>
      <rects>
        <_>
          7 25 63 15 -1.</_>
        <_>
          28 30 21 5 9.</_></rects>
      <tilted>0</tilted></_>
    <_>
      <rects>
        <_>
          11 28 60 9 -1.</_>
        <_>
          31 28 20 9 3.</_></rects>
      <tilted>0</tilted></_>
    <_>
      <rects>
        <_>
          14 3 16 19 -1.</_>
        <_>
          22 3 8 19 2.</_></rects>
      <tilted>0</tilted></_>
    <_>
      <rects>
        <_>
          15 12 12 11 -1.</_>
        <_>
          19 12 4 11 3.</_></rects>
      <tilted>0</tilted></_>
    <_>
      <rects>
        <_>
          15 17 32 15 -1.</_>
        <_>
          15 22 32 5 3.</_></rects>
      <tilted>0</tilted></_>
    <_>
      <rects>
        <_>
          15 24 36 16 -1.</_>
        <_>
          27 24 12 16 3.</_></rects>
      <tilted>0</tilted></_>
    <_>
      <rects>
        <_>
          20 16 14 6 -1.</_>
        <_>
          27 16 7 6 2.</_></rects>
      <tilted>0</tilted></_>
    <_>
      <rects>
        <_>
          22 17 12 3 -1.</_>
        <_>
          26 17 4 3 3.</_></rects>
      <tilted>0</tilted></_>
    <_>
      <rects>
        <_>
          22 19 30 21 -1.</_>
        <_>
          32 26 10 7 9.</_></rects>
      <tilted>0</tilted></_>
    <_>
      <rects>
        <_>
          26 5 6 14 -1.</_>
        <_>
          26 12 6 7 2.</_></rects>
      <tilted>0</tilted></_>
    <_>
      <rects>
        <_>
          26 9 40 10 -1.</_>
        <_>
          36 9 20 10 2.</_></rects>
      <tilted>0</tilted></_>
    <_>
      <rects>
        <_>
          26 14 39 5 -1.</_>
        <_>
          39 14 13 5 3.</_></rects>
      <tilted>0</tilted></_>
    <_>
      <rects>
        <_>
          26 18 24 22 -1.</_>
        <_>
          32 18 12 22 2.</_></rects>
      <tilted>0</tilted></_>
    <_>
      <rects>
        <_>
          27 13 24 5 -1.</_>
        <_>
          39 13 12 5 2.</_></rects>
      <tilted>0</tilted></_>
    <_>
      <rects>
        <_>
          28 9 9 6 -1.</_>
        <_>
          31 12 3 6 3.</_></rects>
      <tilted>1</tilted></_>
    <_>
      <rects>
        <_>
          28 13 5 10 -1.</_>
        <_>
          28 13 5 5 2.</_></rects>
      <tilted>1</tilted></_>
    <_>
      <rects>
        <_>
          28 14 20 15 -1.</_>
        <_>
          33 14 10 15 2.</_></rects>
      <tilted>0</tilted></_>
    <_>
      <rects>
        <_>
          28 17 9 6 -1.</_>
        <_>
          31 17 3 6 3.</_></rects>
      <tilted>0</tilted></_>
    <_>
      <rects>
        <_>
          28 17 20 4 -1.</_>
        <_>
          38 17 10 4 2.</_></rects>
      <tilted>0</tilted></_>
    <_>
      <rects>
        <_>
          29 18 26 10 -1.</_>
        <_>
          29 18 13 5 2.</_>
        <_>
          42 23 13 5 2.</_></rects>
      <tilted>0</tilted></_>
    <_>
      <rects>
        <_>
          30 3 5 10 -1.</_>
        <_>
          30 8 5 5 2.</_></rects>
      <tilted>0</tilted></_>
    <_>
      <rects>
        <_>
          30 19 12 5 -1.</_>
        <_>
          34 19 4 5 3.</_></rects>
      <tilted>0</tilted></_>
    <_>
      <rects>
        <_>
          31 5 24 8 -1.</_>
        <_>
          37 5 12 8 2.</_></rects>
      <tilted>0</tilted></_>
    <_>
      <rects>
        <_>
          31 14 28 2 -1.</_>
        <_>
          45 14 14 2 2.</_></rects>
      <tilted>0</tilted></_>
    <_>
      <rects>
        <_>
          31 22 46 16 -1.</_>
        <_>
          31 22 23 8 2.</_>
        <_>
          54 30 23 8 2.</_></rects>
      <tilted>0</tilted></_>
    <_>
      <rects>
        <_>
          31 34 8 1 -1.</_>
        <_>
          33 34 4 1 2.</_></rects>
      <tilted>0</tilted></_>
    <_>
      <rects>
        <_>
          32 17 9 6 -1.</_>
        <_>
          35 17 3 6 3.</_></rects>
      <tilted>0</tilted></_>
    <_>
      <rects>
        <_>
          32 19 9 3 -1.</_>
        <_>
          35 19 3 3 3.</_></rects>
      <tilted>0</tilted></_>
    <_>
      <rects>
        <_>
          32 19 14 3 -1.</_>
        <_>
          39 19 7 3 2.</_></rects>
      <tilted>0</tilted></_>
    <_>
      <rects>
        <_>
          33 12 14 8 -1.</_>
        <_>
          33 12 7 8 2.</_></rects>
      <tilted>1</tilted></_>
    <_>
      <rects>
        <_>
          34 6 5 27 -1.</_>
        <_>
          34 15 5 9 3.</_></rects>
      <tilted>0</tilted></_>
    <_>
      <rects>
        <_>
          34 7 18 5 -1.</_>
        <_>
          34 7 9 5 2.</_></rects>
      <tilted>1</tilted></_>
    <_>
      <rects>
        <_>
          34 11 6 5 -1.</_>
        <_>
          36 11 2 5 3.</_></rects>
      <tilted>0</tilted></_>
    <_>
      <rects>
        <_>
          34 17 3 3 -1.</_>
        <_>
          35 18 1 1 9.</_></rects>
      <tilted>0</tilted></_>
    <_>
      <rects>
        <_>
          34 17 10 5 -1.</_>
        <_>
          39 17 5 5 2.</_></rects>
      <tilted>0</tilted></_>
    <_>
      <rects>
        <_>
          34 24 13 10 -1.</_>
        <_>
          34 29 13 5 2.</_></rects>
      <tilted>0</tilted></_>
    <_>
      <rects>
        <_>
          35 6 5 27 -1.</_>
        <_>
          35 15 5 9 3.</_></rects>
      <tilted>0</tilted></_>
    <_>
      <rects>
        <_>
          35 10 24 5 -1.</_>
        <_>
          43 10 8 5 3.</_></rects>
      <tilted>0</tilted></_>
    <_>
      <rects>
        <_>
          35 13 20 18 -1.</_>
        <_>
          45 13 10 18 2.</_></rects>
      <tilted>0</tilted></_>
    <_>
      <rects>
        <_>
          35 16 10 7 -1.</_>
        <_>
          40 16 5 7 2.</_></rects>
      <tilted>0</tilted></_>
    <_>
      <rects>
        <_>
          35 17 3 16 -1.</_>
        <_>
          35 25 3 8 2.</_></rects>
      <tilted>0</tilted></_>
    <_>
      <rects>
        <_>
          35 17 8 6 -1.</_>
        <_>
          39 17 4 6 2.</_></rects>
      <tilted>0</tilted></_>
    <_>
      <rects>
        <_>
          35 18 12 3 -1.</_>
        <_>
          39 18 4 3 3.</_></rects>
      <tilted>0</tilted></_>
    <_>
      <rects>
        <_>
          35 18 5 14 -1.</_>
        <_>
          35 25 5 7 2.</_></rects>
      <tilted>0</tilted></_>
    <_>
      <rects>
        <_>
          36 10 20 9 -1.</_>
        <_>
          41 10 10 9 2.</_></rects>
      <tilted>0</tilted></_>
    <_>
      <rects>
        <_>
          36 12 2 16 -1.</_>
        <_>
          36 16 2 8 2.</_></rects>
      <tilted>0</tilted></_>
    <_>
      <rects>
        <_>
          37 7 8 11 -1.</_>
        <_>
          37 7 4 11 2.</_></rects>
      <tilted>1</tilted></_>
    <_>
      <rects>
        <_>
          37 10 20 8 -1.</_>
        <_>
          42 10 10 8 2.</_></rects>
      <tilted>0</tilted></_>
    <_>
      <rects>
        <_>
          37 15 9 12 -1.</_>
        <_>
          40 19 3 4 9.</_></rects>
      <tilted>0</tilted></_>
    <_>
      <rects>
        <_>
          37 16 9 9 -1.</_>
        <_>
          40 16 3 9 3.</_></rects>
      <tilted>0</tilted></_>
    <_>
      <rects>
        <_>
          37 17 6 9 -1.</_>
        <_>
          39 20 2 3 9.</_></rects>
      <tilted>0</tilted></_>
    <_>
      <rects>
        <_>
          37 17 6 6 -1.</_>
        <_>
          35 19 6 2 3.</_></rects>
      <tilted>1</tilted></_>
    <_>
      <rects>
        <_>
          37 17 7 6 -1.</_>
        <_>
          35 19 7 2 3.</_></rects>
      <tilted>1</tilted></_>
    <_>
      <rects>
        <_>
          37 20 3 1 -1.</_>
        <_>
          38 20 1 1 3.</_></rects>
      <tilted>0</tilted></_>
    <_>
      <rects>
        <_>
          37 22 5 4 -1.</_>
        <_>
          37 22 5 2 2.</_></rects>
      <tilted>1</tilted></_>
    <_>
      <rects>
        <_>
          38 10 12 16 -1.</_>
        <_>
          38 10 6 8 2.</_>
        <_>
          44 18 6 8 2.</_></rects>
      <tilted>0</tilted></_>
    <_>
      <rects>
        <_>
          38 11 12 6 -1.</_>
        <_>
          38 11 6 6 2.</_></rects>
      <tilted>1</tilted></_>
    <_>
      <rects>
        <_>
          38 14 12 16 -1.</_>
        <_>
          38 18 12 8 2.</_></rects>
      <tilted>0</tilted></_>
    <_>
      <rects>
        <_>
          38 19 2 1 -1.</_>
        <_>
          39 19 1 1 2.</_></rects>
      <tilted>0</tilted></_>
    <_>
      <rects>
        <_>
          38 20 2 1 -1.</_>
        <_>
          39 20 1 1 2.</_></rects>
      <tilted>0</tilted></_>
    <_>
      <rects>
        <_>
          39 0 5 36 -1.</_>
        <_>
          39 18 5 18 2.</_></rects>
      <tilted>0</tilted></_>
    <_>
      <rects>
        <_>
          39 9 10 18 -1.</_>
        <_>
          39 9 5 9 2.</_>
        <_>
          44 18 5 9 2.</_></rects>
      <tilted>0</tilted></_>
    <_>
      <rects>
        <_>
          39 9 10 20 -1.</_>
        <_>
          39 9 5 10 2.</_>
        <_>
          44 19 5 10 2.</_></rects>
      <tilted>0</tilted></_>
    <_>
      <rects>
        <_>
          39 16 6 3 -1.</_>
        <_>
          39 16 3 3 2.</_></rects>
      <tilted>1</tilted></_>
    <_>
      <rects>
        <_>
          39 17 3 4 -1.</_>
        <_>
          40 17 1 4 3.</_></rects>
      <tilted>0</tilted></_>
    <_>
      <rects>
        <_>
          39 18 4 1 -1.</_>
        <_>
          40 18 2 1 2.</_></rects>
      <tilted>0</tilted></_>
    <_>
      <rects>
        <_>
          39 18 3 2 -1.</_>
        <_>
          40 18 1 2 3.</_></rects>
      <tilted>0</tilted></_>
    <_>
      <rects>
        <_>
          39 18 2 3 -1.</_>
        <_>
          40 18 1 3 2.</_></rects>
      <tilted>0</tilted></_>
    <_>
      <rects>
        <_>
          39 18 4 3 -1.</_>
        <_>
          40 18 2 3 2.</_></rects>
      <tilted>0</tilted></_>
    <_>
      <rects>
        <_>
          39 19 1 2 -1.</_>
        <_>
          39 20 1 1 2.</_></rects>
      <tilted>0</tilted></_>
    <_>
      <rects>
        <_>
          39 19 2 2 -1.</_>
        <_>
          40 19 1 2 2.</_></rects>
      <tilted>0</tilted></_>
    <_>
      <rects>
        <_>
          39 19 4 2 -1.</_>
        <_>
          40 19 2 2 2.</_></rects>
      <tilted>0</tilted></_>
    <_>
      <rects>
        <_>
          39 20 12 18 -1.</_>
        <_>
          45 20 6 18 2.</_></rects>
      <tilted>0</tilted></_>
    <_>
      <rects>
        <_>
          40 13 10 5 -1.</_>
        <_>
          40 13 5 5 2.</_></rects>
      <tilted>1</tilted></_>
    <_>
      <rects>
        <_>
          40 16 3 4 -1.</_>
        <_>
          41 16 1 4 3.</_></rects>
      <tilted>0</tilted></_>
    <_>
      <rects>
        <_>
          40 16 2 9 -1.</_>
        <_>
          40 19 2 3 3.</_></rects>
      <tilted>0</tilted></_>
    <_>
      <rects>
        <_>
          40 17 3 3 -1.</_>
        <_>
          41 17 1 3 3.</_></rects>
      <tilted>0</tilted></_>
    <_>
      <rects>
        <_>
          40 19 1 6 -1.</_>
        <_>
          40 22 1 3 2.</_></rects>
      <tilted>0</tilted></_>
    <_>
      <rects>
        <_>
          40 20 2 1 -1.</_>
        <_>
          41 20 1 1 2.</_></rects>
      <tilted>0</tilted></_>
    <_>
      <rects>
        <_>
          40 34 3 2 -1.</_>
        <_>
          40 35 3 1 2.</_></rects>
      <tilted>0</tilted></_>
    <_>
      <rects>
        <_>
          41 7 1 20 -1.</_>
        <_>
          41 17 1 10 2.</_></rects>
      <tilted>0</tilted></_>
    <_>
      <rects>
        <_>
          41 7 16 13 -1.</_>
        <_>
          41 7 8 13 2.</_></rects>
      <tilted>1</tilted></_>
    <_>
      <rects>
        <_>
          41 15 2 1 -1.</_>
        <_>
          42 15 1 1 2.</_></rects>
      <tilted>0</tilted></_>
    <_>
      <rects>
        <_>
          41 15 3 4 -1.</_>
        <_>
          42 15 1 4 3.</_></rects>
      <tilted>0</tilted></_>
    <_>
      <rects>
        <_>
          41 16 1 8 -1.</_>
        <_>
          41 18 1 4 2.</_></rects>
      <tilted>0</tilted></_>
    <_>
      <rects>
        <_>
          41 17 2 4 -1.</_>
        <_>
          41 17 1 2 2.</_>
        <_>
          42 19 1 2 2.</_></rects>
      <tilted>0</tilted></_>
    <_>
      <rects>
        <_>
          41 17 3 3 -1.</_>
        <_>
          42 17 1 3 3.</_></rects>
      <tilted>0</tilted></_>
    <_>
      <rects>
        <_>
          42 16 1 2 -1.</_>
        <_>
          42 16 1 1 2.</_></rects>
      <tilted>1</tilted></_>
    <_>
      <rects>
        <_>
          42 16 6 16 -1.</_>
        <_>
          44 18 2 16 3.</_></rects>
      <tilted>1</tilted></_>
    <_>
      <rects>
        <_>
          42 18 1 3 -1.</_>
        <_>
          41 19 1 1 3.</_></rects>
      <tilted>1</tilted></_>
    <_>
      <rects>
        <_>
          42 18 6 4 -1.</_>
        <_>
          44 20 2 4 3.</_></rects>
      <tilted>1</tilted></_>
    <_>
      <rects>
        <_>
          43 15 1 3 -1.</_>
        <_>
          42 16 1 1 3.</_></rects>
      <tilted>1</tilted></_>
    <_>
      <rects>
        <_>
          43 16 1 3 -1.</_>
        <_>
          42 17 1 1 3.</_></rects>
      <tilted>1</tilted></_>
    <_>
      <rects>
        <_>
          43 16 2 3 -1.</_>
        <_>
          42 17 2 1 3.</_></rects>
      <tilted>1</tilted></_>
    <_>
      <rects>
        <_>
          43 16 6 7 -1.</_>
        <_>
          45 16 2 7 3.</_></rects>
      <tilted>0</tilted></_>
    <_>
      <rects>
        <_>
          43 20 14 9 -1.</_>
        <_>
          43 23 14 3 3.</_></rects>
      <tilted>0</tilted></_>
    <_>
      <rects>
        <_>
          43 22 5 8 -1.</_>
        <_>
          43 24 5 4 2.</_></rects>
      <tilted>0</tilted></_>
    <_>
      <rects>
        <_>
          44 14 6 3 -1.</_>
        <_>
          46 15 2 1 9.</_></rects>
      <tilted>0</tilted></_>
    <_>
      <rects>
        <_>
          44 15 2 3 -1.</_>
        <_>
          44 15 1 3 2.</_></rects>
      <tilted>1</tilted></_>
    <_>
      <rects>
        <_>
          44 16 11 12 -1.</_>
        <_>
          44 20 11 4 3.</_></rects>
      <tilted>0</tilted></_>
    <_>
      <rects>
        <_>
          44 19 3 2 -1.</_>
        <_>
          45 19 1 2 3.</_></rects>
      <tilted>0</tilted></_>
    <_>
      <rects>
        <_>
          44 20 3 3 -1.</_>
        <_>
          45 21 1 1 9.</_></rects>
      <tilted>0</tilted></_>
    <_>
      <rects>
        <_>
          44 21 24 16 -1.</_>
        <_>
          44 21 12 8 2.</_>
        <_>
          56 29 12 8 2.</_></rects>
      <tilted>0</tilted></_>
    <_>
      <rects>
        <_>
          45 0 15 12 -1.</_>
        <_>
          41 4 15 4 3.</_></rects>
      <tilted>1</tilted></_>
    <_>
      <rects>
        <_>
          45 8 8 8 -1.</_>
        <_>
          45 8 8 4 2.</_></rects>
      <tilted>1</tilted></_>
    <_>
      <rects>
        <_>
          45 11 10 18 -1.</_>
        <_>
          45 17 10 6 3.</_></rects>
      <tilted>0</tilted></_>
    <_>
      <rects>
        <_>
          45 11 12 15 -1.</_>
        <_>
          45 16 12 5 3.</_></rects>
      <tilted>0</tilted></_>
    <_>
      <rects>
        <_>
          45 14 10 8 -1.</_>
        <_>
          43 16 10 4 2.</_></rects>
      <tilted>1</tilted></_>
    <_>
      <rects>
        <_>
          45 18 3 6 -1.</_>
        <_>
          46 18 1 6 3.</_></rects>
      <tilted>0</tilted></_>
    <_>
      <rects>
        <_>
          45 26 4 4 -1.</_>
        <_>
          45 26 2 4 2.</_></rects>
      <tilted>1</tilted></_>
    <_>
      <rects>
        <_>
          46 9 3 12 -1.</_>
        <_>
          46 9 3 6 2.</_></rects>
      <tilted>1</tilted></_>
    <_>
      <rects>
        <_>
          46 16 3 3 -1.</_>
        <_>
          47 17 1 1 9.</_></rects>
      <tilted>0</tilted></_>
    <_>
      <rects>
        <_>
          46 17 3 3 -1.</_>
        <_>
          47 18 1 1 9.</_></rects>
      <tilted>0</tilted></_>
    <_>
      <rects>
        <_>
          47 10 10 27 -1.</_>
        <_>
          52 10 5 27 2.</_></rects>
      <tilted>0</tilted></_>
    <_>
      <rects>
        <_>
          47 13 14 4 -1.</_>
        <_>
          47 13 14 2 2.</_></rects>
      <tilted>1</tilted></_>
    <_>
      <rects>
        <_>
          47 14 9 1 -1.</_>
        <_>
          50 17 3 1 3.</_></rects>
      <tilted>1</tilted></_>
    <_>
      <rects>
        <_>
          47 21 8 15 -1.</_>
        <_>
          47 26 8 5 3.</_></rects>
      <tilted>0</tilted></_>
    <_>
      <rects>
        <_>
          49 15 12 10 -1.</_>
        <_>
          53 15 4 10 3.</_></rects>
      <tilted>0</tilted></_>
    <_>
      <rects>
        <_>
          49 20 12 4 -1.</_>
        <_>
          52 20 6 4 2.</_></rects>
      <tilted>0</tilted></_>
    <_>
      <rects>
        <_>
          50 15 2 6 -1.</_>
        <_>
          50 15 2 3 2.</_></rects>
      <tilted>1</tilted></_>
    <_>
      <rects>
        <_>
          50 19 2 6 -1.</_>
        <_>
          50 19 2 3 2.</_></rects>
      <tilted>1</tilted></_>
    <_>
      <rects>
        <_>
          51 14 2 6 -1.</_>
        <_>
          51 14 2 3 2.</_></rects>
      <tilted>1</tilted></_>
    <_>
      <rects>
        <_>
          52 2 8 15 -1.</_>
        <_>
          47 7 8 5 3.</_></rects>
      <tilted>1</tilted></_>
    <_>
      <rects>
        <_>
          53 12 2 8 -1.</_>
        <_>
          51 14 2 4 2.</_></rects>
      <tilted>1</tilted></_>
    <_>
      <rects>
        <_>
          54 18 8 5 -1.</_>
        <_>
          58 18 4 5 2.</_></rects>
      <tilted>0</tilted></_>
    <_>
      <rects>
        <_>
          54 19 6 6 -1.</_>
        <_>
          57 19 3 6 2.</_></rects>
      <tilted>0</tilted></_>
    <_>
      <rects>
        <_>
          55 11 2 4 -1.</_>
        <_>
          54 12 2 2 2.</_></rects>
      <tilted>1</tilted></_>
    <_>
      <rects>
        <_>
          56 5 6 19 -1.</_>
        <_>
          58 7 2 19 3.</_></rects>
      <tilted>1</tilted></_>
    <_>
      <rects>
        <_>
          60 17 9 11 -1.</_>
        <_>
          63 20 3 11 3.</_></rects>
      <tilted>1</tilted></_>
    <_>
      <rects>
        <_>
          64 13 9 17 -1.</_>
        <_>
          67 16 3 17 3.</_></rects>
      <tilted>1</tilted></_>
    <_>
      <rects>
        <_>
          66 25 12 14 -1.</_>
        <_>
          66 25 6 7 2.</_>
        <_>
          72 32 6 7 2.</_></rects>
      <tilted>0</tilted></_>
    <_>
      <rects>
        <_>
          67 0 6 23 -1.</_>
        <_>
          69 2 2 23 3.</_></rects>
      <tilted>1</tilted></_>
    <_>
      <rects>
        <_>
          70 16 8 16 -1.</_>
        <_>
          70 16 4 16 2.</_></rects>
      <tilted>1</tilted></_>
    <_>
      <rects>
        <_>
          73 9 4 10 -1.</_>
        <_>
          75 9 2 10 2.</_></rects>
      <tilted>0</tilted></_>
    <_>
      <rects>
        <_>
          73 18 4 22 -1.</_>
        <_>
          75 18 2 22 2.</_></rects>
      <tilted>0</tilted></_>
    <_>
      <rects>
        <_>
          74 16 4 11 -1.</_>
        <_>
          75 16 2 11 2.</_></rects>
      <tilted>0</tilted></_>
    <_>
      <rects>
        <_>
          75 12 4 10 -1.</_>
        <_>
          75 12 2 5 2.</_>
        <_>
          77 17 2 5 2.</_></rects>
      <tilted>0</tilted></_>
    <_>
      <rects>
        <_>
          75 34 4 6 -1.</_>
        <_>
          77 34 2 6 2.</_></rects>
      <tilted>0</tilted></_>
    <_>
      <rects>
        <_>
          76 5 4 27 -1.</_>
        <_>
          77 5 2 27 2.</_></rects>
      <tilted>0</tilted></_>
    <_>
      <rects>
        <_>
          76 14 4 23 -1.</_>
        <_>
          77 14 2 23 2.</_></rects>
      <tilted>0</tilted></_>
    <_>
      <rects>
        <_>
          76 28 4 10 -1.</_>
        <_>
          76 28 2 5 2.</_>
        <_>
          78 33 2 5 2.</_></rects>
      <tilted>0</tilted></_>
    <_>
      <rects>
        <_>
          76 36 4 4 -1.</_>
        <_>
          76 36 2 2 2.</_>
        <_>
          78 38 2 2 2.</_></rects>
      <tilted>0</tilted></_></features></cascade>
</opencv_storage>
