<?xml version="1.0"?>
<opencv_storage>
<stage7>
  <maxWeakCount>8</maxWeakCount>
  <stageThreshold>-1.3714193105697632e+00</stageThreshold>
  <weakClassifiers>
    <_>
      <internalNodes>
        0 -1 6547515 -1.0455350857228041e-03</internalNodes>
      <leafValues>
        6.4798426628112793e-01 -4.4425386190414429e-01</leafValues></_>
    <_>
      <internalNodes>
        0 -1 5664850 -9.1565409093163908e-05</internalNodes>
      <leafValues>
        -7.4955415725708008e-01 4.0260171890258789e-01</leafValues></_>
    <_>
      <internalNodes>
        0 -1 5020845 -1.5932666137814522e-02</internalNodes>
      <leafValues>
        -8.8506799936294556e-01 2.8080010414123535e-01</leafValues></_>
    <_>
      <internalNodes>
        0 -1 5008487 -7.2829048149287701e-03</internalNodes>
      <leafValues>
        3.7101736664772034e-01 -7.0871156454086304e-01</leafValues></_>
    <_>
      <internalNodes>
        0 -1 5264990 1.4078355161473155e-04</internalNodes>
      <leafValues>
        -7.2112447023391724e-01 3.5263186693191528e-01</leafValues></_>
    <_>
      <internalNodes>
        0 -1 5760038 -1.1532950884429738e-04</internalNodes>
      <leafValues>
        -9.6914237737655640e-01 2.3676045238971710e-01</leafValues></_>
    <_>
      <internalNodes>
        0 -1 7376096 -4.5300037600100040e-03</internalNodes>
      <leafValues>
        4.3871748447418213e-01 -5.6726735830307007e-01</leafValues></_>
    <_>
      <internalNodes>
        0 -1 5561608 1.0829290840774775e-04</internalNodes>
      <leafValues>
        2.9594671726226807e-01 -9.1623097658157349e-01</leafValues></_></weakClassifiers></stage7>
</opencv_storage>
