<?xml version="1.0"?>
<opencv_storage>
<stage8>
  <maxWeakCount>9</maxWeakCount>
  <stageThreshold>-1.5514268875122070e+00</stageThreshold>
  <weakClassifiers>
    <_>
      <internalNodes>
        0 -1 6470426 -8.5811037570238113e-04</internalNodes>
      <leafValues>
        6.5834933519363403e-01 -5.1254481077194214e-01</leafValues></_>
    <_>
      <internalNodes>
        0 -1 5464791 -7.0201858761720359e-05</internalNodes>
      <leafValues>
        -8.9854681491851807e-01 3.5711717605590820e-01</leafValues></_>
    <_>
      <internalNodes>
        0 -1 4921063 -5.4197581484913826e-03</internalNodes>
      <leafValues>
        3.0925205349922180e-01 -8.7949401140213013e-01</leafValues></_>
    <_>
      <internalNodes>
        0 -1 5561799 2.1385186119005084e-04</internalNodes>
      <leafValues>
        -7.5025713443756104e-01 2.8035953640937805e-01</leafValues></_>
    <_>
      <internalNodes>
        0 -1 2455885 -1.1206654831767082e-02</internalNodes>
      <leafValues>
        4.4691571593284607e-01 -5.2248406410217285e-01</leafValues></_>
    <_>
      <internalNodes>
        0 -1 5572385 -5.5397929827449843e-05</internalNodes>
      <leafValues>
        -9.7392547130584717e-01 2.3425923287868500e-01</leafValues></_>
    <_>
      <internalNodes>
        0 -1 4190192 1.0590091347694397e-02</internalNodes>
      <leafValues>
        -4.4096332788467407e-01 6.1179506778717041e-01</leafValues></_>
    <_>
      <internalNodes>
        0 -1 2433351 1.1239148676395416e-02</internalNodes>
      <leafValues>
        -5.5115401744842529e-01 6.1820214986801147e-01</leafValues></_>
    <_>
      <internalNodes>
        0 -1 4386761 1.9317304249852896e-03</internalNodes>
      <leafValues>
        -4.4114619493484497e-01 5.9701931476593018e-01</leafValues></_></weakClassifiers></stage8>
</opencv_storage>
