<?xml version="1.0"?>
<opencv_storage>
<stage15>
  <maxWeakCount>9</maxWeakCount>
  <stageThreshold>-1.0428824424743652e+00</stageThreshold>
  <weakClassifiers>
    <_>
      <internalNodes>
        0 -1 5214399 3.1245723948813975e-04</internalNodes>
      <leafValues>
        -7.0224720239639282e-01 5.2250802516937256e-01</leafValues></_>
    <_>
      <internalNodes>
        0 -1 5856313 -1.6551584121771157e-04</internalNodes>
      <leafValues>
        -8.4689408540725708e-01 3.1312441825866699e-01</leafValues></_>
    <_>
      <internalNodes>
        0 -1 5251661 -3.3993914257735014e-04</internalNodes>
      <leafValues>
        3.2548043131828308e-01 -7.7948480844497681e-01</leafValues></_>
    <_>
      <internalNodes>
        0 -1 5363507 -3.6848825402557850e-05</internalNodes>
      <leafValues>
        -5.7141602039337158e-01 5.8319634199142456e-01</leafValues></_>
    <_>
      <internalNodes>
        0 -1 3143294 -7.2439778596162796e-03</internalNodes>
      <leafValues>
        9.0359491109848022e-01 -3.3727371692657471e-01</leafValues></_>
    <_>
      <internalNodes>
        0 -1 2407307 -5.5331876501441002e-03</internalNodes>
      <leafValues>
        7.3448830842971802e-01 -3.4000107645988464e-01</leafValues></_>
    <_>
      <internalNodes>
        0 -1 5227638 -7.4105812236666679e-03</internalNodes>
      <leafValues>
        4.2801898717880249e-01 -6.2887305021286011e-01</leafValues></_>
    <_>
      <internalNodes>
        0 -1 7742157 4.5497179962694645e-04</internalNodes>
      <leafValues>
        3.0246254801750183e-01 -8.0998378992080688e-01</leafValues></_>
    <_>
      <internalNodes>
        0 -1 4920304 5.7583185844123363e-04</internalNodes>
      <leafValues>
        -4.5562458038330078e-01 6.6365855932235718e-01</leafValues></_></weakClassifiers></stage15>
</opencv_storage>
