<?xml version="1.0"?>
<opencv_storage>
<stage6>
  <maxWeakCount>7</maxWeakCount>
  <stageThreshold>-1.1876683235168457e+00</stageThreshold>
  <weakClassifiers>
    <_>
      <internalNodes>
        0 -1 5664846 -8.3299804828129709e-05</internalNodes>
      <leafValues>
        -9.2366409301757812e-01 6.3214582204818726e-01</leafValues></_>
    <_>
      <internalNodes>
        0 -1 5467465 1.2006612087134272e-04</internalNodes>
      <leafValues>
        3.8231870532035828e-01 -9.6490871906280518e-01</leafValues></_>
    <_>
      <internalNodes>
        0 -1 5363507 -4.9633985327091068e-05</internalNodes>
      <leafValues>
        -7.5820845365524292e-01 5.3667622804641724e-01</leafValues></_>
    <_>
      <internalNodes>
        0 -1 5038984 -6.8273628130555153e-03</internalNodes>
      <leafValues>
        4.8268383741378784e-01 -7.0097362995147705e-01</leafValues></_>
    <_>
      <internalNodes>
        0 -1 5467475 -1.0794014087878168e-04</internalNodes>
      <leafValues>
        -9.5735746622085571e-01 3.7079536914825439e-01</leafValues></_>
    <_>
      <internalNodes>
        0 -1 5670025 -1.7496812461104128e-06</internalNodes>
      <leafValues>
        3.0611866712570190e-01 -9.8389697074890137e-01</leafValues></_>
    <_>
      <internalNodes>
        0 -1 5251647 -1.5016396064311266e-03</internalNodes>
      <leafValues>
        2.9951506853103638e-01 -9.5537829399108887e-01</leafValues></_></weakClassifiers></stage6>
</opencv_storage>
