<?xml version="1.0"?>
<opencv_storage>
<stage4>
  <maxWeakCount>7</maxWeakCount>
  <stageThreshold>-1.1118595600128174e+00</stageThreshold>
  <weakClassifiers>
    <_>
      <internalNodes>
        0 -1 2683627 3.0530855059623718e-02</internalNodes>
      <leafValues>
        -6.7391306161880493e-01 7.3664122819900513e-01</leafValues></_>
    <_>
      <internalNodes>
        0 -1 5765457 3.8756411413487513e-06</internalNodes>
      <leafValues>
        -9.3287038803100586e-01 5.1891255378723145e-01</leafValues></_>
    <_>
      <internalNodes>
        0 -1 6698852 2.0061254501342773e-02</internalNodes>
      <leafValues>
        -5.7425576448440552e-01 8.2528412342071533e-01</leafValues></_>
    <_>
      <internalNodes>
        0 -1 5760038 -1.7992415450862609e-06</internalNodes>
      <leafValues>
        4.6314170956611633e-01 -9.5476174354553223e-01</leafValues></_>
    <_>
      <internalNodes>
        0 -1 5953610 5.9814774431288242e-04</internalNodes>
      <leafValues>
        -4.7952803969383240e-01 8.8043200969696045e-01</leafValues></_>
    <_>
      <internalNodes>
        0 -1 5760038 -1.4466911670751870e-04</internalNodes>
      <leafValues>
        -9.5848768949508667e-01 4.3450489640235901e-01</leafValues></_>
    <_>
      <internalNodes>
        0 -1 6050137 -7.2711694519966841e-04</internalNodes>
      <leafValues>
        6.5106111764907837e-01 -5.9451079368591309e-01</leafValues></_></weakClassifiers></stage4>
</opencv_storage>
