<?xml version="1.0"?>
<opencv_storage>
<stage16>
  <maxWeakCount>9</maxWeakCount>
  <stageThreshold>-6.4524084329605103e-01</stageThreshold>
  <weakClassifiers>
    <_>
      <internalNodes>
        0 -1 4519632 -3.2051024027168751e-04</internalNodes>
      <leafValues>
        5.4142260551452637e-01 -6.0987651348114014e-01</leafValues></_>
    <_>
      <internalNodes>
        0 -1 5856387 8.6268177255988121e-04</internalNodes>
      <leafValues>
        -5.8023643493652344e-01 4.6810373663902283e-01</leafValues></_>
    <_>
      <internalNodes>
        0 -1 7746835 -4.8876553773880005e-04</internalNodes>
      <leafValues>
        -7.9326599836349487e-01 3.3708980679512024e-01</leafValues></_>
    <_>
      <internalNodes>
        0 -1 6784288 -5.2435141697060317e-05</internalNodes>
      <leafValues>
        3.5895767807960510e-01 -7.3377007246017456e-01</leafValues></_>
    <_>
      <internalNodes>
        0 -1 7691553 4.4943336979486048e-04</internalNodes>
      <leafValues>
        2.6305022835731506e-01 -7.9719007015228271e-01</leafValues></_>
    <_>
      <internalNodes>
        0 -1 5338506 2.5590885430574417e-02</internalNodes>
      <leafValues>
        2.2531048953533173e-01 -9.2553657293319702e-01</leafValues></_>
    <_>
      <internalNodes>
        0 -1 5470808 5.7580403517931700e-04</internalNodes>
      <leafValues>
        -8.8987869024276733e-01 2.3019498586654663e-01</leafValues></_>
    <_>
      <internalNodes>
        0 -1 5952525 -5.7260747998952866e-03</internalNodes>
      <leafValues>
        8.3719903230667114e-01 -3.4599375724792480e-01</leafValues></_>
    <_>
      <internalNodes>
        0 -1 7484697 3.7354584783315659e-03</internalNodes>
      <leafValues>
        -4.4172170758247375e-01 6.5250462293624878e-01</leafValues></_></weakClassifiers></stage16>
</opencv_storage>
