<?xml version="1.0"?>
<opencv_storage>
<stage18>
  <maxWeakCount>11</maxWeakCount>
  <stageThreshold>-1.3414314985275269e+00</stageThreshold>
  <weakClassifiers>
    <_>
      <internalNodes>
        0 -1 5631457 1.5353050082921982e-02</internalNodes>
      <leafValues>
        -8.2389938831329346e-01 5.1638066768646240e-01</leafValues></_>
    <_>
      <internalNodes>
        0 -1 5552839 1.2138430960476398e-02</internalNodes>
      <leafValues>
        2.9575249552726746e-01 -9.3147045373916626e-01</leafValues></_>
    <_>
      <internalNodes>
        0 -1 6214792 9.9554215557873249e-04</internalNodes>
      <leafValues>
        2.5896990299224854e-01 -8.1642305850982666e-01</leafValues></_>
    <_>
      <internalNodes>
        0 -1 745406 -7.8141965786926448e-05</internalNodes>
      <leafValues>
        -6.7891317605972290e-01 3.6021986603736877e-01</leafValues></_>
    <_>
      <internalNodes>
        0 -1 5960845 -5.0316879060119390e-04</internalNodes>
      <leafValues>
        7.2084790468215942e-01 -3.8360023498535156e-01</leafValues></_>
    <_>
      <internalNodes>
        0 -1 6062956 -3.4080655314028263e-04</internalNodes>
      <leafValues>
        -5.8893096446990967e-01 4.2472845315933228e-01</leafValues></_>
    <_>
      <internalNodes>
        0 -1 4881941 9.3603804707527161e-03</internalNodes>
      <leafValues>
        -9.4440662860870361e-01 2.1236100792884827e-01</leafValues></_>
    <_>
      <internalNodes>
        0 -1 6837203 8.8261731434613466e-04</internalNodes>
      <leafValues>
        -3.4925401210784912e-01 7.9506617784500122e-01</leafValues></_>
    <_>
      <internalNodes>
        0 -1 6029721 -1.1959660798311234e-02</internalNodes>
      <leafValues>
        9.0079790353775024e-01 -2.4392361938953400e-01</leafValues></_>
    <_>
      <internalNodes>
        0 -1 5350258 8.8146720081567764e-03</internalNodes>
      <leafValues>
        -3.7371850013732910e-01 6.8885993957519531e-01</leafValues></_>
    <_>
      <internalNodes>
        0 -1 316970 1.0081828804686666e-04</internalNodes>
      <leafValues>
        2.9459193348884583e-01 -8.1090003252029419e-01</leafValues></_></weakClassifiers></stage18>
</opencv_storage>
